/*!
 * The following copyright notice may not be removed under any circumstances.
 * 
 * Copyright:
 * Digitized data copyright (c) 2010 Google Corporation.
 * 
 * Trademark:
 * Arimo is a trademark of Google and may be registered in certain jurisdictions.
 * 
 * Description:
 * Arimo was designed by Steve Matteson as an innovative, refreshing sans serif
 * design that is metrically compatible with Arial. Arimo offers improved on-screen
 * readability characteristics and the pan-European WGL character set and solves
 * the needs of developers looking for width-compatible fonts to address document
 * portability across platforms.
 * 
 * Manufacturer:
 * Ascender Corporation
 * 
 * Designer:
 * Steve Matteson
 * 
 * Vendor URL:
 * http://www.ascendercorp.com/
 * 
 * License information:
 * http://scripts.sil.org/OFL
 */
Cufon.registerFont({"w":1139,"face":{"font-family":"Arimo","font-weight":400,"font-stretch":"normal","units-per-em":"2048","panose-1":"2 11 6 4 2 2 2 2 2 4","ascent":"1638","descent":"-410","x-height":"20","bbox":"-50 -1516 1926 434","underline-thickness":"150","underline-position":"-142","unicode-range":"U+0020-U+007E"},"glyphs":{" ":{"w":569,"k":{"Y":37,"T":37,"A":113}},"\u00a0":{"w":569},"!":{"d":"359,-397r-148,0r-24,-1012r196,0xm185,0r0,-201r194,0r0,201r-194,0","w":569},"\"":{"d":"618,-966r-142,0r-20,-443r184,0xm249,-966r-141,0r-21,-443r184,0","w":727},"#":{"d":"896,-885r-78,369r260,0r0,108r-283,0r-88,408r-110,0r86,-408r-363,0r-84,408r-110,0r84,-408r-201,0r0,-108r225,0r78,-369r-252,0r0,-108r274,0r89,-408r110,0r-88,408r363,0r88,-408r110,0r-88,408r211,0r0,108r-233,0xm425,-885r-80,369r362,0r78,-369r-360,0"},"$":{"d":"518,-20v-284,-12,-449,-132,-496,-359r170,-37v17,79,51,139,104,179v53,40,127,63,222,69r0,-496v-118,-29,-199,-56,-244,-79v-45,-23,-82,-51,-110,-81v-28,-30,-48,-62,-60,-97v-12,-35,-18,-76,-18,-125v0,-103,37,-184,112,-242v75,-58,182,-91,320,-97r0,-131r124,0r0,131v125,6,221,35,289,85v68,50,116,128,144,235r-174,33v-13,-63,-40,-111,-81,-146v-41,-35,-100,-57,-178,-64r0,445v119,28,204,54,254,77v50,23,91,50,120,79v29,29,52,64,67,104v15,40,23,87,23,141v0,110,-40,198,-121,265v-81,67,-195,104,-343,111r0,162r-124,0r0,-162xm934,-394v0,-43,-9,-79,-26,-107v-17,-28,-42,-51,-75,-69v-33,-18,-96,-40,-191,-65r0,468v94,-6,166,-28,216,-67v50,-39,76,-92,76,-160xm258,-1048v0,39,8,73,25,100v17,27,42,50,75,69v33,19,86,37,160,56r0,-421v-173,9,-260,75,-260,196"},"%":{"d":"1748,-434v0,143,-27,253,-81,330v-54,77,-134,116,-239,116v-104,0,-183,-37,-236,-112v-53,-75,-79,-187,-79,-334v0,-152,26,-266,77,-340v51,-74,131,-111,242,-111v109,0,189,39,240,115v51,76,76,188,76,336xm527,0r-155,0r922,-1409r157,0xm394,-1421v106,0,185,37,236,112v51,75,77,186,77,334v0,145,-26,256,-79,334v-53,78,-133,117,-238,117v-105,0,-185,-39,-238,-116v-53,-77,-79,-189,-79,-335v0,-149,26,-261,77,-335v51,-74,133,-111,244,-111xm1600,-434v0,-119,-12,-206,-38,-260v-26,-54,-69,-80,-130,-80v-61,0,-105,26,-132,79v-27,53,-40,140,-40,261v0,114,14,199,40,254v26,55,69,82,130,82v59,0,102,-28,129,-84v27,-56,41,-139,41,-252xm560,-975v0,-117,-13,-203,-38,-257v-25,-54,-68,-81,-128,-81v-63,0,-107,26,-134,79v-27,53,-40,140,-40,259v0,115,13,200,40,255v27,55,71,83,132,83v58,0,101,-28,128,-84v27,-56,40,-141,40,-254","w":1821},"&":{"d":"1193,12v-118,0,-217,-42,-298,-127v-50,43,-107,77,-171,100v-64,23,-131,35,-201,35v-143,0,-254,-35,-333,-104v-79,-69,-118,-164,-118,-287v0,-185,114,-328,343,-429v-22,-41,-41,-90,-57,-147v-16,-57,-24,-108,-24,-155v0,-100,31,-177,92,-232v61,-55,147,-83,259,-83v101,0,181,25,243,76v62,51,93,120,93,208v0,79,-30,149,-91,210v-61,61,-167,122,-318,182v74,137,172,274,293,412v75,-111,132,-247,171,-410r145,43v-42,166,-113,322,-212,469v64,65,133,98,208,98v47,0,86,-5,117,-16r0,135v-37,15,-84,22,-141,22xm869,-1133v0,-48,-17,-87,-50,-117v-33,-30,-79,-46,-136,-46v-64,0,-113,18,-146,52v-33,34,-50,81,-50,142v0,76,22,157,65,244v87,-35,151,-66,192,-92v41,-26,73,-54,94,-84v21,-30,31,-63,31,-99xm795,-217v-132,-156,-238,-308,-319,-457v-157,67,-236,167,-236,301v0,81,26,144,78,191v52,47,122,71,211,71v47,0,95,-9,142,-27v47,-18,89,-45,124,-79","w":1366},"'":{"d":"266,-966r-141,0r-21,-443r184,0","w":391},"(":{"d":"127,-532v0,-193,31,-366,91,-519v60,-153,153,-298,278,-433r174,0v-125,139,-216,286,-274,442v-58,156,-88,327,-88,512v0,185,28,355,86,510v58,155,150,303,276,444r-174,0v-126,-136,-219,-280,-279,-434v-60,-154,-90,-327,-90,-518r0,-4","w":682},")":{"d":"555,-528v0,193,-31,366,-91,519v-60,153,-153,298,-278,433r-174,0v125,-140,217,-287,275,-442v58,-155,87,-326,87,-512v0,-186,-30,-357,-88,-512v-58,-155,-149,-303,-274,-442r174,0v126,136,219,280,279,434v60,154,90,327,90,518r0,4","w":682},"*":{"d":"456,-1114r264,-103r45,132r-282,73r185,250r-119,72r-150,-258r-156,256r-119,-72r189,-248r-280,-73r45,-134r267,107r-12,-297r136,0","w":797},"+":{"d":"671,-608r0,428r-147,0r0,-428r-424,0r0,-146r424,0r0,-428r147,0r0,428r424,0r0,146r-424,0","w":1196},",":{"d":"385,-219r0,168v0,71,-6,130,-19,177v-13,47,-32,93,-59,136r-123,0v63,-91,94,-178,94,-262r-88,0r0,-219r195,0","w":569},"-":{"d":"91,-464r0,-160r500,0r0,160r-500,0","w":682},"\u00ad":{"d":"91,-464r0,-160r500,0r0,160r-500,0","w":682},".":{"d":"187,0r0,-219r195,0r0,219r-195,0","w":569},"\/":{"d":"0,20r411,-1504r158,0r-407,1504r-162,0","w":569},"0":{"d":"1059,-705v0,235,-42,415,-125,539v-83,124,-205,186,-367,186v-162,0,-284,-62,-365,-185v-81,-123,-122,-303,-122,-540v0,-242,39,-423,118,-544v79,-121,204,-181,375,-181v166,0,288,61,367,183v79,122,119,303,119,542xm876,-705v0,-203,-23,-351,-70,-442v-47,-91,-125,-137,-233,-137v-111,0,-191,45,-239,135v-48,90,-72,238,-72,444v0,200,25,346,74,439v49,93,126,139,233,139v106,0,184,-47,233,-142v49,-95,74,-240,74,-436"},"1":{"d":"156,0r0,-153r359,0r0,-1084r-318,227r0,-170r333,-229r166,0r0,1256r343,0r0,153r-883,0","k":{"1":152}},"2":{"d":"103,0r0,-127v34,-78,76,-147,125,-207v49,-60,100,-114,154,-162v54,-48,107,-93,160,-134v53,-41,101,-83,144,-124v43,-41,78,-85,104,-130v26,-45,39,-97,39,-154v0,-77,-23,-137,-68,-180v-45,-43,-108,-64,-189,-64v-77,0,-140,20,-190,62v-50,42,-78,101,-87,176r-184,-17v13,-113,61,-202,143,-269v82,-67,189,-100,318,-100v142,0,252,33,328,100v76,67,114,163,114,286v0,55,-13,109,-38,163v-25,54,-62,108,-111,162v-49,54,-144,138,-283,251v-77,63,-138,120,-183,170v-45,50,-78,98,-98,145r735,0r0,153r-933,0"},"3":{"d":"1049,-389v0,130,-41,231,-124,302v-83,71,-201,107,-354,107v-143,0,-256,-32,-341,-96v-85,-64,-136,-160,-152,-286r186,-17v24,167,126,250,307,250v91,0,161,-22,213,-67v52,-45,78,-111,78,-199v0,-77,-29,-136,-88,-179v-59,-43,-145,-65,-256,-65r-102,0r0,-156r98,0v99,0,176,-22,230,-65v54,-43,81,-102,81,-178v0,-75,-23,-134,-67,-178v-44,-44,-110,-66,-197,-66v-79,0,-144,20,-193,61v-49,41,-77,98,-85,172r-181,-14v13,-115,62,-205,144,-270v82,-65,188,-97,317,-97v141,0,251,32,329,98v78,66,118,158,118,275v0,90,-26,163,-76,219v-50,56,-123,95,-219,115r0,4v105,11,187,47,246,106v59,59,88,134,88,224"},"4":{"d":"881,-319r0,319r-170,0r0,-319r-664,0r0,-140r645,-950r189,0r0,948r198,0r0,142r-198,0xm711,-1206v-1,4,-11,22,-28,53v-17,31,-30,53,-39,66r-361,532r-54,74r-16,20r498,0r0,-745"},"5":{"d":"1053,-459v0,149,-45,266,-133,351v-88,85,-210,128,-367,128v-131,0,-237,-29,-318,-86v-81,-57,-132,-140,-153,-249r182,-21v38,139,136,209,293,209v97,0,172,-29,227,-87v55,-58,82,-139,82,-241v0,-89,-27,-160,-82,-215v-55,-55,-130,-82,-223,-82v-49,0,-94,8,-136,23v-42,15,-84,41,-126,78r-176,0r47,-758r801,0r0,153r-637,0r-27,447v78,-60,175,-90,291,-90v139,0,250,41,332,122v82,81,123,187,123,318"},"6":{"d":"1049,-461v0,149,-40,266,-121,352v-81,86,-192,129,-334,129v-159,0,-280,-59,-364,-177v-84,-118,-126,-290,-126,-515v0,-244,44,-431,131,-562v87,-131,212,-196,373,-196v213,0,347,96,402,287r-172,31v-35,-115,-113,-172,-232,-172v-103,0,-182,48,-238,144v-56,96,-85,234,-85,415v33,-61,79,-107,138,-139v59,-32,127,-47,204,-47v130,0,233,41,309,122v76,81,115,191,115,328xm866,-453v0,-102,-25,-181,-75,-236v-50,-55,-120,-83,-209,-83v-84,0,-152,25,-204,74v-52,49,-77,116,-77,202v0,109,27,198,81,267v54,69,122,104,206,104v87,0,155,-29,204,-87v49,-58,74,-139,74,-241"},"7":{"d":"1036,-1263v-144,220,-246,392,-305,517v-59,125,-103,248,-133,369v-30,121,-45,247,-45,377r-188,0v0,-180,39,-369,115,-568v76,-199,203,-429,382,-688r-757,0r0,-153r931,0r0,146"},"8":{"d":"1050,-393v0,130,-41,231,-124,304v-83,73,-201,109,-356,109v-151,0,-269,-36,-354,-107v-85,-71,-127,-173,-127,-304v0,-92,26,-169,79,-232v53,-63,120,-101,202,-114r0,-4v-77,-18,-138,-57,-182,-117v-44,-60,-66,-130,-66,-211v0,-107,40,-194,120,-261v80,-67,189,-100,324,-100v139,0,248,33,328,98v80,65,121,154,121,265v0,81,-22,151,-67,211v-45,60,-106,98,-183,113r0,4v90,15,160,53,210,115v50,62,75,138,75,231xm828,-1057v0,-159,-87,-239,-262,-239v-85,0,-150,20,-194,60v-44,40,-66,100,-66,179v0,81,22,143,68,185v46,42,111,63,194,63v85,0,150,-20,194,-59v44,-39,66,-102,66,-189xm863,-410v0,-87,-26,-154,-78,-198v-52,-44,-125,-66,-219,-66v-91,0,-163,24,-214,72v-51,48,-77,113,-77,196v0,194,99,291,297,291v98,0,171,-24,219,-71v48,-47,72,-121,72,-224"},"9":{"d":"1042,-733v0,242,-44,428,-132,558v-88,130,-215,195,-378,195v-110,0,-198,-24,-264,-70v-66,-46,-114,-121,-143,-224r172,-27v36,117,115,176,238,176v103,0,183,-48,240,-144v57,-96,86,-233,89,-411v-27,60,-72,108,-137,144v-65,36,-136,55,-213,55v-127,0,-228,-43,-304,-130v-76,-87,-114,-202,-114,-345v0,-147,41,-264,124,-348v83,-84,198,-126,345,-126v157,0,275,58,356,174v81,116,121,290,121,523xm846,-907v0,-113,-26,-204,-78,-273v-52,-69,-122,-104,-209,-104v-87,0,-155,29,-205,88v-50,59,-75,139,-75,240v0,103,25,184,75,244v50,60,118,89,203,89v52,0,100,-11,145,-35v45,-24,80,-58,106,-101v26,-43,38,-93,38,-148"},":":{"d":"187,-875r0,-207r195,0r0,207r-195,0xm187,0r0,-207r195,0r0,207r-195,0","w":569},"<":{"d":"101,-571r0,-205r995,-418r0,154r-858,366r858,367r0,153","w":1196},"=":{"d":"100,-856r0,-148r995,0r0,148r-995,0xm100,-344r0,-148r995,0r0,148r-995,0","w":1196},">":{"d":"101,-154r0,-153r858,-367r-858,-366r0,-154r995,418r0,205","w":1196},"?":{"d":"1063,-1032v0,50,-7,95,-22,134v-15,39,-36,76,-63,109v-27,33,-72,73,-134,118r-80,59v-48,35,-84,72,-107,110v-23,38,-35,80,-36,125r-175,0v1,-46,9,-86,22,-121v13,-35,29,-65,50,-92v21,-27,44,-51,70,-72v26,-21,52,-41,79,-60r79,-56v26,-19,48,-41,68,-64v20,-23,36,-50,48,-79v12,-29,19,-64,19,-103v0,-76,-25,-136,-77,-180v-52,-44,-125,-66,-218,-66v-93,0,-167,23,-222,70v-55,47,-87,111,-96,192r-184,-12v17,-132,69,-233,156,-304v87,-71,201,-106,344,-106v149,0,266,36,351,106v85,70,128,167,128,292xm438,0r0,-201r195,0r0,201r-195,0"},"@":{"d":"1902,-755v0,124,-20,237,-58,337v-38,100,-92,177,-160,232v-68,55,-144,82,-229,82v-66,0,-117,-15,-153,-44v-36,-29,-54,-73,-54,-132r3,-70r-6,0v-44,82,-98,143,-163,184v-65,41,-136,62,-211,62v-105,0,-185,-34,-243,-102v-58,-68,-87,-162,-87,-283v0,-109,22,-211,65,-305v43,-94,103,-169,180,-224v77,-55,163,-83,257,-83v146,0,246,61,301,182r6,0r39,-160r156,0r-116,506v-25,109,-37,194,-37,253v0,63,27,94,81,94v53,0,102,-23,147,-69v45,-46,81,-109,107,-190v26,-81,39,-170,39,-268v0,-119,-26,-225,-77,-317v-51,-92,-125,-164,-222,-214v-97,-50,-210,-74,-339,-74v-161,0,-304,36,-428,107v-124,71,-221,175,-292,309v-71,134,-106,284,-106,451v0,129,26,243,78,341v52,98,129,173,228,226v99,53,214,79,346,79v97,0,195,-12,294,-37v99,-25,202,-67,309,-125r55,112v-97,58,-201,103,-314,133v-113,30,-228,45,-344,45v-161,0,-302,-31,-422,-95v-120,-64,-212,-154,-276,-272v-64,-118,-95,-254,-95,-407v0,-187,42,-356,125,-509v83,-153,198,-271,345,-356v147,-85,312,-128,495,-128v161,0,299,30,416,90v117,60,206,146,268,256v62,110,92,238,92,383xm1296,-747v0,-68,-22,-123,-66,-165v-44,-42,-103,-62,-176,-62v-67,0,-128,22,-180,64v-52,42,-93,101,-123,176v-30,75,-45,156,-45,243v0,80,16,143,48,188v32,45,80,68,146,68v83,0,160,-35,229,-105v69,-70,117,-157,144,-262v15,-61,23,-110,23,-145","w":2079},"A":{"d":"1167,0r-161,-412r-642,0r-162,412r-198,0r575,-1409r217,0r566,1409r-195,0xm685,-1265r-9,28v-17,55,-41,126,-74,213r-180,463r527,0r-181,-465v-19,-46,-37,-98,-56,-156","w":1366,"k":{"y":37,"w":37,"v":37,"Y":152,"W":76,"V":152,"T":152," ":113}},"B":{"d":"1258,-397v0,125,-46,223,-137,293v-91,70,-218,104,-381,104r-572,0r0,-1409r512,0v331,0,496,114,496,342v0,83,-23,153,-70,210v-47,57,-113,95,-198,114v112,13,198,51,259,113v61,62,91,139,91,233xm984,-1044v0,-76,-26,-130,-78,-163v-52,-33,-127,-49,-226,-49r-321,0r0,446r321,0v102,0,178,-20,228,-58v50,-38,76,-97,76,-176xm1065,-412v0,-166,-117,-249,-350,-249r-356,0r0,508r371,0v117,0,202,-22,255,-65v53,-43,80,-108,80,-194","w":1366},"C":{"d":"792,-1274v-156,0,-277,50,-364,150v-87,100,-130,238,-130,413v0,173,46,312,136,417v90,105,212,157,366,157v197,0,346,-98,445,-293r156,78v-58,121,-140,214,-245,277v-105,63,-226,95,-365,95v-142,0,-265,-29,-369,-88v-104,-59,-182,-144,-236,-254v-54,-110,-82,-239,-82,-389v0,-225,61,-401,182,-528v121,-127,289,-191,504,-191v150,0,275,29,376,88v101,59,175,146,222,261r-181,60v-33,-82,-85,-145,-157,-188v-72,-43,-159,-65,-258,-65","w":1479},"D":{"d":"1381,-719v0,145,-28,272,-85,381v-57,109,-137,193,-241,251v-104,58,-224,87,-360,87r-527,0r0,-1409r466,0v239,0,422,59,552,179v130,120,195,290,195,511xm1189,-719v0,-175,-47,-307,-143,-399v-96,-92,-235,-138,-416,-138r-271,0r0,1103r314,0v103,0,195,-23,273,-68v78,-45,138,-111,180,-196v42,-85,63,-186,63,-302","w":1479},"E":{"d":"168,0r0,-1409r1069,0r0,156r-878,0r0,452r818,0r0,154r-818,0r0,491r919,0r0,156r-1110,0","w":1366},"F":{"d":"359,-1253r0,524r786,0r0,158r-786,0r0,571r-191,0r0,-1409r1001,0r0,156r-810,0","w":1251,"k":{"A":113,".":227,",":227}},"G":{"d":"103,-711v0,-229,61,-406,184,-531v123,-125,295,-188,517,-188v156,0,283,26,380,79v97,53,172,137,225,253r-182,54v-40,-80,-95,-138,-165,-175v-70,-37,-158,-55,-263,-55v-163,0,-287,50,-373,148v-86,98,-129,236,-129,415v0,178,46,318,137,421v91,103,218,155,379,155v92,0,177,-14,257,-42v80,-28,145,-66,194,-114r0,-254r-421,0r0,-160r597,0r0,486v-75,76,-166,135,-274,177v-108,42,-226,62,-353,62v-147,0,-274,-29,-381,-88v-107,-59,-188,-144,-244,-254v-56,-110,-85,-240,-85,-389","w":1593},"H":{"d":"1121,0r0,-653r-762,0r0,653r-191,0r0,-1409r191,0r0,596r762,0r0,-596r191,0r0,1409r-191,0","w":1479},"I":{"d":"189,0r0,-1409r191,0r0,1409r-191,0","w":569},"J":{"d":"457,20v-239,0,-380,-123,-425,-370r187,-31v12,77,39,138,81,181v42,43,95,65,158,65v69,0,124,-23,164,-71v40,-48,60,-118,60,-210r0,-837r-271,0r0,-156r461,0r0,989v0,137,-37,244,-111,322v-74,78,-175,118,-304,118","w":1024},"K":{"d":"1106,0r-563,-680r-184,140r0,540r-191,0r0,-1409r191,0r0,706r679,-706r225,0r-600,612r680,797r-237,0","w":1366},"L":{"d":"168,0r0,-1409r191,0r0,1253r712,0r0,156r-903,0","k":{"y":76,"Y":152,"W":152,"V":152,"T":152," ":76}},"M":{"d":"1366,0r0,-940v0,-104,3,-204,9,-300v-33,119,-62,213,-88,280r-364,960r-134,0r-369,-960r-56,-170r-33,-110r3,111r4,189r0,940r-170,0r0,-1409r251,0r375,977v13,39,26,81,38,126v12,45,21,78,25,98v5,-27,16,-68,33,-122v17,-54,29,-88,35,-102r368,-977r245,0r0,1409r-172,0","w":1706},"N":{"d":"1082,0r-754,-1200r5,97r5,167r0,936r-170,0r0,-1409r222,0r762,1208v-8,-131,-12,-225,-12,-284r0,-924r172,0r0,1409r-230,0","w":1479},"O":{"d":"1495,-711v0,147,-29,276,-85,387v-56,111,-137,196,-242,255v-105,59,-230,89,-373,89v-145,0,-270,-29,-375,-88v-105,-59,-185,-143,-240,-254v-55,-111,-83,-241,-83,-389v0,-225,62,-402,185,-529v123,-127,295,-190,515,-190v143,0,268,29,373,86v105,57,186,139,242,248v56,109,83,237,83,385xm1300,-711v0,-175,-44,-313,-132,-413v-88,-100,-211,-150,-371,-150v-161,0,-286,49,-374,148v-88,99,-132,237,-132,415v0,177,44,317,133,421v89,104,213,155,371,155v163,0,288,-51,375,-151v87,-100,130,-242,130,-425","w":1593},"P":{"d":"1258,-985v0,133,-43,239,-130,318v-87,79,-206,118,-355,118r-414,0r0,549r-191,0r0,-1409r593,0v158,0,280,37,367,111v87,74,130,178,130,313xm1066,-983v0,-182,-109,-273,-328,-273r-379,0r0,556r387,0v213,0,320,-94,320,-283","w":1366,"k":{"A":152,".":264,",":264," ":37}},"Q":{"d":"1495,-711v0,199,-50,362,-150,490v-100,128,-239,204,-417,227v27,84,64,145,108,182v44,37,100,56,168,56v37,0,75,-4,115,-13r0,134v-62,15,-121,22,-178,22v-101,0,-184,-28,-249,-85v-65,-57,-118,-153,-159,-286v-132,-7,-245,-40,-341,-100v-96,-60,-170,-144,-220,-252v-50,-108,-75,-233,-75,-375v0,-225,62,-402,185,-529v123,-127,295,-190,515,-190v143,0,268,29,373,86v105,57,186,139,242,248v56,109,83,237,83,385xm1300,-711v0,-175,-44,-313,-132,-413v-88,-100,-211,-150,-371,-150v-161,0,-286,49,-374,148v-88,99,-132,237,-132,415v0,177,44,317,133,421v89,104,213,155,371,155v163,0,288,-51,375,-151v87,-100,130,-242,130,-425","w":1593},"R":{"d":"1164,0r-366,-585r-439,0r0,585r-191,0r0,-1409r663,0v159,0,281,36,367,107v86,71,130,169,130,296v0,105,-31,193,-92,264v-61,71,-145,116,-252,135r400,607r-220,0xm1136,-1004v0,-82,-28,-145,-84,-188v-56,-43,-135,-64,-240,-64r-453,0r0,520r461,0v101,0,179,-23,234,-70v55,-47,82,-113,82,-198","w":1479,"k":{"Y":37,"W":37,"V":37,"T":37}},"S":{"d":"1272,-389v0,130,-50,231,-152,302v-102,71,-245,107,-430,107v-343,0,-542,-119,-597,-358r185,-37v21,85,67,147,136,187v69,40,164,59,283,59v123,0,218,-21,285,-63v67,-42,101,-105,101,-187v0,-46,-10,-83,-31,-112v-21,-29,-51,-52,-89,-71v-38,-19,-83,-34,-136,-47r-175,-41v-111,-25,-196,-49,-254,-74v-58,-25,-103,-52,-136,-82v-33,-30,-58,-66,-76,-107v-18,-41,-27,-87,-27,-140v0,-121,47,-214,139,-279v92,-65,224,-98,396,-98v160,0,282,25,367,74v85,49,144,132,178,250r-188,33v-21,-75,-60,-129,-118,-163v-58,-34,-138,-50,-241,-50v-113,0,-199,19,-258,56v-59,37,-89,93,-89,167v0,43,12,79,35,107v23,28,56,52,99,72v43,20,130,44,259,73r130,31v43,10,84,22,123,36v39,14,77,32,111,51v34,19,64,43,89,71v25,28,45,61,59,99v14,38,22,83,22,134","w":1366},"T":{"d":"720,-1253r0,1253r-190,0r0,-1253r-484,0r0,-156r1158,0r0,156r-484,0","w":1251,"k":{"y":113,"w":113,"u":76,"s":227,"r":76,"o":227,"i":76,"e":227,"c":227,"a":227,"O":37,"A":152,":":227,".":227,"-":113,",":227," ":37}},"U":{"d":"731,20v-115,0,-216,-21,-302,-63v-86,-42,-153,-103,-200,-183v-47,-80,-71,-175,-71,-286r0,-897r191,0r0,881v0,129,33,226,98,293v65,67,160,100,283,100v127,0,226,-34,296,-103v70,-69,105,-170,105,-303r0,-868r190,0r0,879v0,114,-25,212,-73,295v-48,83,-116,145,-204,189v-88,44,-193,66,-313,66","w":1479},"V":{"d":"782,0r-198,0r-575,-1409r201,0r390,992r84,249r84,-249r388,-992r201,0","w":1366,"k":{"y":76,"u":76,"r":76,"o":113,"i":37,"e":113,"a":152,"A":152,":":76,".":188,"-":113,",":188}},"W":{"d":"1511,0r-228,0r-244,-895v-16,-56,-39,-156,-70,-301r-44,194v-12,52,-103,386,-273,1002r-228,0r-415,-1409r199,0r253,895v30,112,58,227,83,346v16,-73,35,-153,56,-240v21,-87,113,-420,277,-1001r183,0r245,877v37,143,67,265,88,364r9,-35r44,-187v11,-48,105,-388,281,-1019r199,0","w":1933,"k":{"y":18,"u":37,"r":37,"o":37,"e":37,"a":76,"A":76,":":37,".":113,"-":37,",":113}},"X":{"d":"1112,0r-423,-616r-432,616r-211,0r536,-732r-495,-677r211,0r392,553r381,-553r211,0r-482,670r523,739r-211,0","w":1366},"Y":{"d":"777,-584r0,584r-190,0r0,-584r-542,-825r210,0r429,671r427,-671r210,0","w":1366,"k":{"v":113,"u":113,"q":188,"p":152,"o":188,"i":76,"e":188,"a":152,"A":152,":":113,".":264,"-":188,",":264," ":37}},"Z":{"d":"1187,0r-1122,0r0,-143r858,-1110r-785,0r0,-156r1002,0r0,139r-858,1114r905,0r0,156","w":1251},"[":{"d":"146,425r0,-1909r407,0r0,129r-233,0r0,1651r233,0r0,129r-407,0","w":569},"\\":{"d":"407,20r-407,-1504r158,0r411,1504r-162,0","w":569},"]":{"d":"16,425r0,-129r233,0r0,-1651r-233,0r0,-129r407,0r0,1909r-407,0","w":569},"^":{"d":"787,-673r-309,-633r-306,633r-162,0r368,-736r203,0r370,736r-164,0","w":961},"_":{"d":"-31,407r0,-130r1193,0r0,130r-1193,0"},"`":{"d":"436,-1201r-330,-278r0,-29r207,0r217,287r0,20r-94,0","w":682},"a":{"d":"414,20v-109,0,-190,-29,-245,-86v-55,-57,-82,-136,-82,-236v0,-112,37,-198,111,-258v74,-60,192,-92,356,-96r243,-4r0,-59v0,-88,-19,-151,-56,-189v-37,-38,-96,-57,-176,-57v-81,0,-139,14,-176,41v-37,27,-59,71,-66,131r-188,-17v31,-195,175,-292,434,-292v136,0,238,32,307,94v69,62,103,152,103,270r0,466v0,53,7,93,21,120v14,27,41,41,80,41v17,0,37,-2,59,-7r0,112v-45,11,-92,16,-139,16v-67,0,-116,-17,-146,-52v-30,-35,-47,-90,-51,-165r-6,0v-46,83,-100,141,-161,175v-61,34,-135,52,-222,52xm455,-115v66,0,125,-15,176,-45v51,-30,91,-72,121,-124v30,-52,45,-106,45,-161r0,-89r-197,4v-85,1,-148,10,-192,26v-44,16,-78,41,-101,74v-23,33,-35,77,-35,131v0,59,16,104,48,136v32,32,76,48,135,48"},"b":{"d":"1053,-546v0,377,-133,566,-398,566v-82,0,-151,-14,-205,-44v-54,-30,-98,-78,-132,-144r-2,0v0,21,-1,52,-4,94v-3,42,-5,67,-6,74r-174,0v4,-36,6,-110,6,-223r0,-1261r180,0r0,423v0,43,-1,94,-4,153r4,0v33,-69,77,-119,132,-149v55,-30,124,-45,205,-45v137,0,237,46,301,138v64,92,97,231,97,418xm864,-540v0,-151,-20,-260,-60,-325v-40,-65,-105,-98,-195,-98v-101,0,-175,35,-221,104v-46,69,-70,179,-70,330v0,142,23,247,68,315v45,68,119,101,221,101v91,0,157,-34,197,-101v40,-67,60,-175,60,-326"},"c":{"d":"275,-546v0,144,23,251,68,320v45,69,114,104,205,104v64,0,117,-17,160,-52v43,-35,70,-88,80,-160r182,12v-14,104,-58,187,-133,249v-75,62,-169,93,-284,93v-151,0,-267,-48,-347,-144v-80,-96,-119,-235,-119,-418v0,-182,40,-320,120,-416v80,-96,195,-144,344,-144v111,0,202,29,275,86v73,57,119,136,138,237r-185,14v-9,-60,-33,-108,-71,-143v-38,-35,-92,-53,-162,-53v-95,0,-164,32,-207,95v-43,63,-64,170,-64,320","w":1024},"d":{"d":"821,-174v-33,69,-78,119,-133,149v-55,30,-123,45,-204,45v-137,0,-238,-46,-302,-138v-64,-92,-96,-231,-96,-418v0,-377,133,-566,398,-566v82,0,150,15,205,45v55,30,99,78,132,143r2,0r-2,-121r0,-449r180,0r0,1261v0,113,2,187,6,223r-172,0v-2,-11,-5,-35,-7,-74v-2,-39,-3,-72,-3,-100r-4,0xm275,-542v0,151,20,260,60,325v40,65,105,98,195,98v102,0,176,-35,222,-106v46,-71,69,-180,69,-329v0,-143,-23,-248,-69,-315v-46,-67,-119,-100,-220,-100v-91,0,-156,34,-196,101v-40,67,-61,175,-61,326"},"e":{"d":"276,-503v0,124,26,220,77,287v51,67,126,101,225,101v78,0,141,-16,188,-47v47,-31,78,-71,95,-119r158,45v-65,171,-212,256,-441,256v-160,0,-282,-48,-366,-143v-84,-95,-125,-237,-125,-425v0,-179,41,-316,125,-411v84,-95,204,-143,359,-143v318,0,477,192,477,575r0,24r-772,0xm862,-641v-10,-114,-39,-197,-87,-249v-48,-52,-117,-79,-207,-79v-87,0,-157,29,-208,87v-51,58,-78,139,-82,241r584,0"},"f":{"d":"361,-951r0,951r-180,0r0,-951r-152,0r0,-131r152,0r0,-122v0,-99,22,-170,65,-213v43,-43,110,-65,199,-65v50,0,92,4,127,12r0,137v-30,-5,-57,-8,-80,-8v-46,0,-79,12,-100,35v-21,23,-31,66,-31,127r0,97r211,0r0,131r-211,0","w":569,"k":{"f":37}},"g":{"d":"548,425v-118,0,-212,-23,-282,-69v-70,-46,-115,-113,-135,-198r181,-26v12,50,39,89,80,116v41,27,94,40,161,40v179,0,269,-105,269,-315r0,-174r-2,0v-34,69,-81,122,-140,157v-59,35,-129,52,-208,52v-133,0,-230,-44,-292,-132v-62,-88,-94,-226,-94,-415v0,-191,33,-332,100,-423v67,-91,169,-137,306,-137v77,0,144,18,200,53v56,35,99,84,130,149r2,0v0,-20,1,-55,4,-104v3,-49,5,-76,8,-81r171,0v-4,36,-6,111,-6,224r0,827v0,304,-151,456,-453,456xm822,-541v0,-88,-12,-163,-36,-227v-24,-64,-58,-112,-102,-146v-44,-34,-93,-51,-148,-51v-92,0,-159,33,-201,100v-42,67,-63,175,-63,324v0,148,20,254,59,319v39,65,107,97,202,97v57,0,107,-17,151,-50v44,-33,78,-81,102,-143v24,-62,36,-137,36,-223"},"h":{"d":"317,-897v39,-71,85,-122,139,-155v54,-33,124,-50,207,-50v117,0,203,30,259,88v56,58,84,156,84,293r0,721r-181,0r0,-686v0,-76,-7,-133,-21,-170v-14,-37,-37,-64,-69,-81v-32,-17,-76,-26,-133,-26v-85,0,-153,29,-204,88v-51,59,-76,138,-76,237r0,638r-180,0r0,-1484r180,0r0,386v0,41,-2,83,-4,126v-2,43,-3,68,-4,75r3,0"},"i":{"d":"137,-1312r0,-172r180,0r0,172r-180,0xm137,0r0,-1082r180,0r0,1082r-180,0","w":455},"j":{"d":"137,-1312r0,-172r180,0r0,172r-180,0xm317,134v0,102,-20,176,-60,222v-40,46,-100,69,-180,69v-51,0,-94,-3,-127,-9r0,-139r62,6v46,0,78,-12,97,-36v19,-24,28,-71,28,-140r0,-1189r180,0r0,1216","w":455},"k":{"d":"816,0r-366,-494r-132,109r0,385r-180,0r0,-1484r180,0r0,927r475,-525r211,0r-439,465r462,617r-211,0","w":1024},"l":{"d":"138,0r0,-1484r180,0r0,1484r-180,0","w":455},"m":{"d":"768,0r0,-686v0,-105,-14,-177,-43,-217v-29,-40,-80,-60,-155,-60v-77,0,-137,29,-182,88v-45,59,-67,141,-67,248r0,627r-179,0r0,-851v0,-126,-2,-203,-6,-231r170,0v1,3,1,12,2,27v1,15,1,32,2,51v1,19,3,54,4,107r3,0v39,-77,83,-130,133,-160v50,-30,111,-45,183,-45v82,0,147,16,195,49v48,33,80,85,99,156r3,0v37,-73,83,-125,136,-157v53,-32,117,-48,192,-48v109,0,188,30,238,89v50,59,75,157,75,292r0,721r-178,0r0,-686v0,-105,-14,-177,-43,-217v-29,-40,-80,-60,-155,-60v-79,0,-139,29,-183,87v-44,58,-66,142,-66,249r0,627r-178,0","w":1706},"n":{"d":"825,0r0,-686v0,-71,-7,-127,-21,-166v-14,-39,-36,-68,-67,-85v-31,-17,-76,-26,-135,-26v-87,0,-155,30,-205,89v-50,59,-75,142,-75,247r0,627r-180,0r0,-851v0,-126,-2,-203,-6,-231r170,0v1,3,1,12,2,27v1,15,1,32,2,51v1,19,3,54,4,107r3,0v41,-75,89,-128,143,-159v54,-31,122,-46,203,-46v119,0,206,29,261,88v55,59,82,157,82,293r0,721r-181,0"},"o":{"d":"1053,-542v0,189,-42,330,-125,423v-83,93,-204,139,-363,139v-158,0,-277,-48,-358,-144v-81,-96,-121,-236,-121,-418v0,-373,162,-560,485,-560v165,0,287,45,365,136v78,91,117,233,117,424xm864,-542v0,-149,-22,-258,-66,-326v-44,-68,-119,-101,-224,-101v-105,0,-181,34,-228,103v-47,69,-71,177,-71,324v0,143,23,250,69,322v46,72,120,107,219,107v108,0,185,-35,231,-104v46,-69,70,-178,70,-325"},"p":{"d":"1053,-546v0,377,-133,566,-398,566v-167,0,-279,-63,-336,-188r-5,0v3,5,4,62,4,170r0,423r-180,0r0,-1286v0,-111,-2,-185,-6,-221r174,0v1,3,2,12,3,28v1,16,3,42,5,76v2,34,2,57,2,70r4,0v32,-67,74,-115,127,-146v53,-31,122,-47,208,-47v133,0,233,45,299,134v66,89,99,230,99,421xm864,-542v0,-151,-20,-258,-61,-323v-41,-65,-105,-97,-194,-97v-71,0,-127,15,-167,45v-40,30,-71,77,-92,141v-21,64,-32,146,-32,248v0,142,23,247,68,314v45,67,119,101,221,101v89,0,154,-33,195,-99v41,-66,62,-175,62,-330"},"q":{"d":"484,20v-137,0,-238,-46,-302,-139v-64,-93,-96,-232,-96,-417v0,-377,133,-566,398,-566v82,0,150,15,203,44v53,29,98,77,134,144r2,0v0,-20,1,-55,4,-104v3,-49,5,-75,8,-78r173,0v-5,39,-7,138,-7,295r0,1226r-180,0r0,-439r4,-164r-2,0v-36,71,-80,122,-133,152v-53,30,-121,46,-206,46xm821,-554v0,-141,-23,-245,-69,-313v-46,-68,-119,-102,-220,-102v-91,0,-157,34,-197,102v-40,68,-60,176,-60,325v0,151,21,260,61,325v40,65,105,98,194,98v102,0,176,-36,222,-109v46,-73,69,-181,69,-326"},"r":{"d":"142,0r0,-830v0,-76,-2,-160,-6,-252r170,0v5,123,8,196,8,221r4,0v29,-93,62,-156,99,-190v37,-34,90,-51,158,-51v24,0,48,3,73,10r0,165v-24,-7,-56,-10,-96,-10v-75,0,-132,33,-171,97v-39,64,-59,156,-59,276r0,564r-180,0","w":682,"k":{".":113,",":113}},"s":{"d":"950,-299v0,102,-39,181,-116,236v-77,55,-184,83,-323,83v-135,0,-238,-22,-311,-66v-73,-44,-121,-114,-143,-208r159,-31v15,58,47,100,95,127v48,27,115,41,200,41v91,0,159,-14,201,-42v42,-28,63,-70,63,-126v0,-43,-15,-77,-44,-104v-29,-27,-77,-49,-142,-66r-129,-34v-103,-27,-176,-53,-220,-79v-44,-26,-78,-56,-103,-93v-25,-37,-37,-82,-37,-135v0,-99,36,-174,106,-226v70,-52,172,-77,307,-77v119,0,215,21,285,63v70,42,114,109,133,202r-162,20v-10,-48,-37,-84,-81,-110v-44,-26,-102,-39,-175,-39v-81,0,-141,12,-180,37v-39,25,-58,62,-58,112v0,31,8,56,24,76v16,20,40,37,71,51v31,14,97,33,198,58v95,24,164,47,206,67v42,20,76,42,100,67v24,25,43,53,56,85v13,32,20,70,20,111","w":1024},"t":{"d":"554,-8v-59,16,-120,24,-182,24v-144,0,-216,-82,-216,-245r0,-722r-125,0r0,-131r132,0r53,-242r120,0r0,242r200,0r0,131r-200,0r0,683v0,52,9,89,26,110v17,21,46,31,88,31v24,0,59,-5,104,-14r0,133","w":569},"u":{"d":"314,-1082r0,686v0,71,7,127,21,166v14,39,36,68,67,85v31,17,76,26,135,26v87,0,155,-30,205,-89v50,-59,75,-142,75,-247r0,-627r180,0r0,851v0,126,2,203,6,231r-170,0v-1,-3,-1,-12,-2,-27v-1,-15,-2,-32,-3,-51v-1,-19,-2,-54,-3,-107r-3,0v-41,75,-90,128,-144,159v-54,31,-121,46,-202,46v-119,0,-205,-29,-260,-88v-55,-59,-83,-157,-83,-293r0,-721r181,0"},"v":{"d":"613,0r-213,0r-393,-1082r192,0r238,704v9,27,32,106,69,237r35,-117r39,-118r246,-706r191,0","w":1024,"k":{".":152,",":152}},"w":{"d":"1174,0r-209,0r-189,-765r-36,-169v-6,30,-15,74,-28,130v-13,56,-81,324,-204,804r-208,0r-303,-1082r178,0r183,735v5,16,19,82,43,198r17,-74r226,-859r193,0r189,743r46,190r31,-139r205,-794r176,0","w":1479,"k":{".":113,",":113}},"x":{"d":"801,0r-291,-444r-293,444r-194,0r385,-556r-367,-526r199,0r270,421r268,-421r201,0r-367,524r390,558r-201,0","w":1024},"y":{"d":"191,425v-49,0,-91,-4,-124,-11r0,-135v25,4,53,6,84,6v112,0,201,-82,266,-247r17,-43r-429,-1077r192,0r228,598r12,34r45,130v25,74,39,115,41,124r70,-197r237,-689r190,0r-416,1082v-45,115,-86,202,-125,258v-39,56,-82,98,-129,126v-47,28,-100,41,-159,41","w":1024,"k":{".":152,",":152}},"z":{"d":"83,0r0,-137r605,-806r-571,0r0,-139r784,0r0,137r-606,806r627,0r0,139r-839,0","w":1024},"{":{"d":"513,425v-85,0,-149,-26,-195,-77v-46,-51,-69,-123,-69,-216r0,-361v0,-78,-18,-137,-53,-175v-35,-38,-89,-59,-162,-62r0,-127v73,-3,127,-23,162,-61v35,-38,53,-97,53,-175r0,-362v0,-94,23,-166,67,-217v44,-51,110,-76,197,-76r135,0r0,129r-63,0v-61,0,-103,17,-129,53v-26,36,-39,90,-39,162r0,356v0,63,-18,116,-53,162v-35,46,-82,76,-141,90r0,2v59,14,106,44,141,89v35,45,53,100,53,165r0,357v0,71,13,125,39,161v26,36,68,54,129,54r63,0r0,129r-135,0","w":684},"|":{"d":"183,434r0,-1918r166,0r0,1918r-166,0","w":532},"}":{"d":"94,296v61,0,104,-18,130,-54v26,-36,40,-90,40,-161r0,-357v0,-65,17,-121,52,-166v35,-45,82,-75,141,-88r0,-2v-57,-13,-103,-43,-139,-88v-36,-45,-54,-99,-54,-164r0,-356v0,-72,-14,-126,-40,-162v-26,-36,-69,-53,-130,-53r-60,0r0,-129r132,0v87,0,154,25,198,76v44,51,66,123,66,217r0,362v0,77,18,135,53,174v35,39,90,59,164,62r0,127v-75,3,-130,23,-165,62v-35,39,-52,97,-52,175r0,361v0,92,-22,164,-68,216v-46,52,-111,77,-196,77r-132,0r0,-129r60,0","w":684},"~":{"d":"844,-553v-46,0,-94,-7,-142,-22v-48,-15,-96,-31,-145,-48v-86,-30,-158,-45,-217,-45v-45,0,-86,6,-125,20v-39,14,-80,37,-123,68r0,-143v74,-56,162,-84,263,-84v35,0,73,4,115,13v42,9,107,28,194,59v21,8,51,18,91,29v40,11,75,16,105,16v87,0,168,-31,244,-92r0,149v-39,28,-77,48,-116,61v-39,13,-87,19,-144,19","w":1196}}});
